-9.079457135226163267e-01,-3.927330695157529167e-02,7.616721862950017741e-01,8.259541556200640233e-01,-1.125264889807659596e+00,-1.093532286459672598e+00,-3.413098462098482777e-01,5.345436134561903918e-01,6.625625498799193602e-01,1.413051241048104978e-01,-8.344287335176475695e-01,1.736942943019302632e+00,-1.072058061843039756e+00,1.302340744853761390e+00,7.388232834503655200e-01,1.280332303871728472e+00,-4.444332929229169449e-01,-1.426541980892041817e-01,5.504255728104342354e-02,-4.763977606015151189e-01,2.252584534950984319e-01,1.579089456071207653e+00,-1.296833847167973008e+00,-6.572117082110900954e-01,-7.657453187062562838e-01,-9.441826213604764817e-02,-1.355262689788708785e-01,7.723145844407058869e-01,3.372310292137512683e-02,3.028832767193023745e-01,3.984480455120007480e-01,2.454040612058115411e-01,7.033130614575918704e-01,-1.223233821327451704e-01,1.646368396074997742e+00,2.541619846718792264e+00,7.062309747670697524e-01,2.279911637090609733e-01,6.245823093172437890e-01,-1.101033085883644125e+00,1.801054674654149201e-01,-7.313246069486085688e-01,5.099769172403300077e-01,-7.263593079771473171e-01,-3.447774453588961507e-01,-1.871970905523052453e+00,-1.173245689947667980e+00,3.548738029360465895e-01,-8.688460783184304148e-01,1.063773983785576638e+00
-9.538890884133123249e-01,4.532545012857709388e-01,-7.618756289717585339e-01,3.854697750335259188e-01,-1.534787329095139485e+00,-4.531829756295582268e-01,-8.462132852877350953e-01,8.832325753089800280e-01,4.622624644542042138e-01,-1.232576054615482253e+00,-2.031807366208804866e-01,-7.723178427228345466e-01,9.502571938685425712e-01,1.271524147653938730e+00,-1.441645146510813325e+00,8.267029743814807707e-01,-8.232960692577093731e-01,-2.529167727193191717e-01,3.225422906095699871e-02,1.816606163555472664e+00,-1.003849727030885264e+00,8.347497226433021611e-01,-1.171504408169617761e+00,-1.240593584840734342e+00,2.846344841915499080e-02,2.172949098972276269e-02,-2.832318318469253526e+00,1.159596289375497635e+00,-2.139114124430851138e+00,-1.459374361133015385e-01,1.327615451605305363e+00,2.209183966688678780e+00,-3.630498636885797770e-01,-1.432949083617087727e+00,1.290548225767957913e+00,8.651565501202621578e-01,-4.889922895784752366e-01,-6.157374582092063342e-01,-7.173921636594314810e-01,-3.445865357346334368e-01,3.160681424016308916e-01,-5.660145827367716320e-01,-4.395802755622404412e-01,6.412790194105756347e-01,-1.482414141058872703e+00,-3.759357199135793248e-01,-1.675941019099101537e+00,1.084124733529013146e-01,-1.939405408141874565e+00,8.900101268264296595e-01
-1.314637395792005448e+00,-1.772578565361454306e+00,-3.636132959016176724e-01,1.711107291677050224e+00,7.111924534215756655e-01,-1.922314105453965638e+00,-1.343125267644541099e+00,-3.956003732457071820e-01,2.238353161770861632e+00,-9.389541479688680026e-01,-9.308852437031944760e-01,1.527429386880181372e+00,1.949072052623757600e-01,1.053000027298741204e+00,-7.270995401759646759e-01,-1.016358477290526946e-01,1.315631862188244572e+00,-1.448408767357999005e-01,1.123053197526463043e+00,3.872673004345301706e-01,-1.039629078418918828e+00,-1.631721234602281911e-02,9.813839922750333677e-01,6.694161911868851123e-01,-4.025289842082822866e-02,-1.891714388971499572e+00,-1.795991481409716206e+00,-1.583305589627116206e+00,-5.104422067665509433e-01,-3.771178736934479025e-01,-1.475411401094022912e+00,1.022512793696016109e+00,-1.263769077220542325e+00,-1.370559042067009514e+00,8.823575388594864788e-02,9.739051199932284852e-01,2.054854619813166750e+00,5.825450545031772842e-01,1.579829718723619436e+00,-1.212056651726561851e+00,2.159739260660999527e+00,-1.861484450555488390e+00,-5.038392538876805826e-01,5.606525195787750437e-01,-1.605217015695943550e+00,-9.270500919253337191e-01,-1.085922529289634175e+00,-3.102210072497345594e-01,1.421582856672674033e+00,1.682506628781064995e-02
-4.630639442340175882e-01,-2.884324367178201509e+00,4.667552048385790742e-01,7.900154089781791233e-01,-1.700019767810211579e+00,-6.697235972252169045e-02,1.930081903320469416e-01,9.646017573036936854e-01,-7.247684582454739788e-01,-8.753603610847972005e-01,-4.564972984683617341e-01,1.284437052777383848e+00,1.043845442172669946e+00,-2.134530217241368405e-02,1.019776527188288151e+00,-2.368691206852158615e+00,7.916542060935255476e-01,-1.118766162813846554e+00,1.767024494395861733e+00,-1.064244711933224119e+00,-8.527621652336446756e-01,5.624237301311781900e-01,6.589541347810363714e-01,-4.463320787671848922e-01,3.714040344230306601e-01,4.953798153284869055e-01,3.931146560580340288e-01,-4.045549175583958990e-01,5.052110240856904078e-01,1.406370405016493796e+00,-1.225488479218826532e+00,-8.400600355418060827e-01,2.725563236057935990e-02,-1.056224040668032993e+00,-1.803403734227260635e+00,1.093122975881956505e+00,-2.228788266026249687e+00,-4.023826975243354198e-01,7.589443197586707157e-01,2.666997895020723486e-01,-3.872493659789523757e-01,-1.097439576534959160e+00,3.438678131479370736e-01,-9.883944384668729155e-01,2.659325863182623317e-01,1.409176482347563597e-01,1.510329090551356668e-01,-6.403187591794156086e-01,2.035009109334789290e+00,3.582066338703747688e-01
-2.787089242196471583e-01,2.642705730618043480e-01,-7.744616439243101613e-01,-3.863044984779063218e-01,2.391919932119517256e+00,-7.673808064423085495e-01,-7.777270026441621131e-02,-4.561048497497660059e-01,-1.039633942824779611e+00,4.210849902198061656e-01,3.647217665420907778e-02,9.110273089999275653e-01,8.105779203300049751e-01,9.007077190419957580e-01,-9.182033728509937376e-01,6.409607992030960100e-01,6.652715062900944609e-01,-1.021062998206855976e+00,-3.186162422272395545e-01,-1.456112096478968221e+00,6.696226323802840774e-01,6.650224694439735851e-01,1.430362799118355399e+00,-2.287985078143456030e-01,4.514695865637963212e-01,9.877351010253083707e-01,-7.538915285546915479e-01,-9.059651413176992296e-01,-7.228852010761648295e-01,-3.492954682052211157e-01,-8.705543556461532440e-01,-6.798277099612237695e-01,8.809151690332452933e-01,-9.634663149429263662e-02,3.066983736594359189e-01,-5.507167881185752734e-01,-6.163654291823401632e-01,2.855558895403971786e-01,1.260623280034051108e-01,7.779866783080691128e-01,1.301592998003992863e+00,-6.914122042764048182e-01,8.611845377637808996e-01,-1.079806167693162733e+00,2.073778682803283591e+00,-7.863040531383287401e-01,6.906305697567595159e-01,-1.087240338744665635e+00,-1.520908861467986095e-01,1.545733142153516315e+00
-8.177041519860727137e-01,2.204186167886222680e+00,-5.275597109045736775e-03,9.757125379826656619e-01,4.029445735036031873e-01,4.570400655963670067e-01,-1.426113717143104642e+00,-4.728527929780461658e-01,1.195976462483703706e+00,-3.443212017699970318e-01,1.388320827178133321e-01,-1.547422128369151162e+00,-5.375769410007441573e-01,1.123039297631465372e+00,-1.282629431926940233e+00,7.170790369961640431e-01,1.777781385849855622e-01,-2.359554860231784790e-01,-2.799245423220072526e-01,-4.910296980779874643e-01,-4.019709720569627498e-01,9.297402248111572565e-01,-4.320438142447742824e-01,1.807590322192307308e+00,2.995325030432119395e-01,-5.762619290282724460e-01,9.733659524856143053e-01,6.238959430765765868e-01,-1.654176440227658640e+00,-1.034471357017537674e+00,-1.154203012024124508e-01,-1.583607934420197427e+00,2.090529901971612592e+00,8.222321820393413416e-01,-1.333284703646188743e-02,-3.427065536132635204e-01,-5.996636543589989321e-01,-1.964032157970909687e+00,-1.732873651645629565e+00,1.901120731267607278e+00,1.573599639232585057e+00,-5.757777549240404857e-01,9.079991561824573010e-01,5.064207749970310868e-01,6.242879566488419574e-01,-1.425177764500705546e+00,-1.808177922530159965e+00,1.182594359069889078e+00,-1.979298303036830076e+00,-1.481935413825152259e-01
-3.677023262177870899e-01,-4.601509616764085653e-01,3.144508222906568506e-01,-6.775924297784515771e-01,3.957354624650479269e-01,1.411554146911949414e-01,2.098732354050425020e+00,-1.385409391818129388e+00,2.926898390482669463e-02,4.313450998777634271e-01,-2.564025555322960725e-01,-1.337075107887838232e+00,1.257102780655194429e+00,3.369343301440520522e-01,-1.266896712926594004e+00,4.386679625582599606e-01,1.701566070052856761e+00,-3.631593341592000840e-02,-2.212669470562166063e-03,1.568005031043319342e+00,-9.703839817512532884e-01,1.727552042620681627e+00,9.729110703682369854e-01,-9.242189639800153511e-01,-6.682689998441152524e-01,-5.248128336822895923e-01,-1.833564213987090019e+00,2.604717490708809424e-01,-8.789470032478533534e-01,2.965513214313054147e-01,-1.290943250325216729e+00,9.230132368944994337e-01,7.376259301305023719e-01,-7.058790140602151375e-01,3.596491578821158219e-01,8.292055930957989429e-02,1.482299486152911738e+00,-1.032478967894872257e+00,-1.522979784941467518e-01,-6.406836367077730632e-01,4.481819710016778091e-02,5.332736027835933701e-01,-6.518073780737090317e-01,-3.641062213892124477e-01,9.660407980573626485e-01,1.357324661926442744e+00,4.935160352028785113e-01,-1.379630987431590128e-01,-2.330969210371492961e-01,5.481263287272901685e-01
