2.277670014048717440e-01
-1.648975837891303087e+00
5.723852323079027249e-01
-8.605697894225621258e-01
-1.416936408475652165e+00
-1.668344888108725721e+00
-2.161043711833192382e-01
-1.016524362182602337e+00
-2.326361559739197560e+00
-3.584555068368107666e-01
-4.905708348858658363e-01
-1.499011146583800469e-01
-6.288979540423771386e-01
1.829329663527278216e+00
5.173372946836405362e-01
-4.996133236214773121e-01
-6.362683744736256919e-02
1.414642667495347839e+00
9.566228117354912408e-01
-1.396211814375032390e+00
-9.742905608266294593e-01
-7.818468740233404102e-01
-4.396999509358087699e-01
-5.954232028760423345e-01
3.400925486107757995e-02
7.357213110188878247e-01
9.026602893824856588e-01
-3.267973428992906881e-01
-1.634693518754396058e+00
-1.040409941871741628e+00
-5.197747896300302095e-01
-1.245034459251357584e+00
1.140858986701613897e+00
-1.179541058580727997e+00
6.170630447352031256e-01
-1.681880355022538076e+00
6.572011012960536913e-01
-1.392687066675857566e-01
1.512530702302550711e+00
-1.131562606546330008e+00
-5.641148006115945801e-01
-3.704326014104394882e-01
-1.525000701503120282e-01
-3.459808309024907658e-01
-3.266785659089869176e-01
-3.430625433856629436e-01
-2.071179882580466369e+00
9.933345016077680389e-01
2.861136567633684180e+00
2.982711046009880462e-01
